float jnd4_22_padding_conv1_weight[36] ={0.026810213923454285f,-0.0017492055194452405f,0.033459678292274475f,-0.06305088847875595f,0.3772602677345276f,-0.06025344505906105f,0.13446323573589325f,0.7822072505950928f,0.1272863894701004f,-0.4495079815387726f,0.020019331946969032f,-0.3362292945384979f,-0.09459134191274643f,0.07548541575670242f,-0.27223747968673706f,-0.34635546803474426f,-0.21561512351036072f,-0.2684616148471832f,-0.22137093544006348f,-0.0972217321395874f,-0.054863762110471725f,-0.11414649337530136f,0.25020715594291687f,-0.23844289779663086f,-0.139423668384552f,0.04712726175785065f,-0.2609650790691376f,0.00024405121803283691f,-0.1553572118282318f,-0.03478756546974182f,0.08984041213989258f,0.11157748103141785f,-0.1942605972290039f,-0.32863926887512207f,-0.3144155442714691f,0.05616167187690735f};

float jnd4_22_padding_conv1_bias[4] ={-0.13014839589595795f,-0.20381222665309906f,-0.08743617683649063f,-0.05446675419807434f};

float jnd4_22_padding_conv2_weight[144] ={-0.007284513209015131f,-0.16330237686634064f,-0.12581516802310944f,-0.08495151996612549f,-0.06230095401406288f,-0.04121851176023483f,-0.15428274869918823f,-0.15337271988391876f,-0.033863332122564316f,-0.12858735024929047f,0.11079822480678558f,-0.06664632260799408f,0.047513026744127274f,-0.10600771754980087f,-0.07202810794115067f,-0.09065177291631699f,0.09381063282489777f,-0.005786892957985401f,0.12612485885620117f,0.07127662748098373f,-0.08563553541898727f,0.12359406054019928f,-0.031422052532434464f,0.12331506609916687f,0.08687333762645721f,-0.05663393437862396f,-0.025240760296583176f,-0.10617417097091675f,-0.04412001371383667f,-0.12607978284358978f,0.10370348393917084f,0.10345341265201569f,0.13203145563602448f,0.01742444932460785f,0.0830991268157959f,0.10740925371646881f,0.05104195326566696f,0.6573184728622437f,0.053079329431056976f,-0.05624660849571228f,0.2544821500778198f,-0.055880676954984665f,0.015162311494350433f,-0.00868428498506546f,0.013502564281225204f,-0.16938689351081848f,-0.10125904530286789f,-0.09844908118247986f,-0.20306238532066345f,0.1626037359237671f,-0.185912624001503f,-0.17446576058864594f,0.06527815759181976f,-0.27690622210502625f,-0.15160532295703888f,0.3569752871990204f,-0.044584356248378754f,-0.1611798256635666f,0.37285035848617554f,-0.02940094657242298f,-0.1399267315864563f,-0.14919452369213104f,-0.13398592174053192f,0.09195347130298615f,-0.06497591733932495f,-0.16298453509807587f,0.07217592000961304f,0.014478608965873718f,-0.12140224874019623f,-0.04235325753688812f,-0.0038346201181411743f,2.4616718292236328e-05f,-0.22092053294181824f,-0.20333021879196167f,-0.19986993074417114f,-0.426638126373291f,-0.18019789457321167f,-0.36442020535469055f,-0.3115946650505066f,-0.32873648405075073f,-0.4478023648262024f,-0.08412402123212814f,0.027339469641447067f,0.0963553786277771f,-0.03641016036272049f,-0.13250181078910828f,-0.18306037783622742f,-0.21768710017204285f,0.05458545684814453f,-0.07001233845949173f,0.0016816600691527128f,-0.2060302495956421f,-0.11415496468544006f,-0.0643409937620163f,-0.042503707110881805f,0.06736709177494049f,-0.0843021422624588f,-0.21985334157943726f,-0.00858653336763382f,-0.14771518111228943f,0.06811682879924774f,0.038342639803886414f,-0.07536029815673828f,-0.018986821174621582f,-0.12130451202392578f,-0.08467064797878265f,-0.15899866819381714f,0.12387962639331818f,-0.16220152378082275f,-0.17385664582252502f,-0.08588236570358276f,-0.07554462552070618f,-0.14198529720306396f,-0.18406373262405396f,-0.2057744264602661f,-0.1898488849401474f,-0.22621257603168488f,-0.16868960857391357f,0.025836220011115074f,-0.027933748438954353f,-0.1926974505186081f,-0.04115169867873192f,0.07394824922084808f,0.04511471092700958f,-0.1176501139998436f,0.07407242804765701f,-0.13102130591869354f,-0.148715540766716f,-0.11996389925479889f,-0.11534132808446884f,-0.1684967428445816f,-0.1263277232646942f,-0.022972607985138893f,-0.03186861053109169f,-0.16471239924430847f,0.15533293783664703f,-0.1567196547985077f,-0.050737857818603516f,0.028759047389030457f,0.017329618334770203f,-0.1042976975440979f,0.14748872816562653f,0.0020146965980529785f,0.10740925371646881f};

float jnd4_22_padding_conv2_bias[4] ={-0.12593448162078857f,-0.002011471427977085f,-0.36347195506095886f,-0.013845291920006275f};

float jnd4_22_padding_conv3_weight[36] ={0.00039686719537712634f,0.12113600969314575f,0.04877976328134537f,0.05614575371146202f,-0.12018602341413498f,-0.04273480921983719f,-0.040614694356918335f,-0.12032907456159592f,-0.1110459491610527f,-0.10849854350090027f,0.08106961846351624f,-0.11645527184009552f,0.23068463802337646f,0.5321841835975647f,0.2342861145734787f,-0.10647288709878922f,0.1260337233543396f,-0.1033131331205368f,-0.19053056836128235f,-0.3583924472332001f,-0.3843423128128052f,-0.20478303730487823f,-0.21937686204910278f,-0.2485833615064621f,-0.21137773990631104f,-0.2971159517765045f,-0.302430659532547f,-0.054757971316576004f,0.22244249284267426f,-0.017993003129959106f,0.02492492087185383f,-0.04651458188891411f,0.04252248629927635f,0.034763187170028687f,0.04613868519663811f,0.20828381180763245f};

float jnd4_22_padding_conv3_bias[1] ={0.0944599136710167f};

float jnd4_27_padding_conv1_weight[36] ={0.0046794964000582695f,0.02118935063481331f,0.0023258381988853216f,-0.015121900476515293f,0.45111823081970215f,-0.010797334834933281f,0.49030500650405884f,1.1472293138504028f,0.48470109701156616f,0.0008770045824348927f,-0.005211460869759321f,0.04034096375107765f,-0.48224937915802f,-0.399034708738327f,-0.3141132593154907f,0.07412917912006378f,-0.4831641912460327f,-0.28285229206085205f,-0.2213461995124817f,-0.48257848620414734f,-0.16434693336486816f,-0.6341255903244019f,-0.5459816455841064f,-0.19943983852863312f,-0.21049748361110687f,-0.10196975618600845f,0.10247517377138138f,-0.10330316424369812f,0.14829431474208832f,-0.09937456995248795f,0.26131361722946167f,0.672503650188446f,0.25823327898979187f,-0.1116802841424942f,0.1364135444164276f,-0.10990124195814133f};

float jnd4_27_padding_conv1_bias[4] ={-1.0371018648147583f,-0.26045307517051697f,-0.3184887766838074f,-0.07867847383022308f};

float jnd4_27_padding_conv2_weight[144] ={-0.2315211445093155f,-0.31037500500679016f,-0.2722897529602051f,-0.20917510986328125f,-0.20447520911693573f,-0.14343558251857758f,-0.25732189416885376f,-0.26924148201942444f,-0.21331393718719482f,-0.08825361728668213f,-0.10356003791093826f,0.04375762864947319f,0.0668993815779686f,0.07350221276283264f,-0.09770563244819641f,-0.21511481702327728f,0.025262942537665367f,0.03508475050330162f,-0.23561662435531616f,-0.08577262610197067f,-0.14761804044246674f,-0.23940739035606384f,0.03587919846177101f,-0.22540895640850067f,-0.20520131289958954f,-0.13301455974578857f,-0.19177396595478058f,-0.3374820947647095f,-0.350747674703598f,-0.3490384519100189f,-0.3205398917198181f,0.11335615813732147f,-0.1856556534767151f,-0.4130624830722809f,0.008893807418644428f,-0.16119161248207092f,-0.11120563000440598f,-0.2425180971622467f,-0.20308668911457062f,-0.2700020968914032f,-0.23913341760635376f,-0.26630908250808716f,-0.30408117175102234f,-0.27104270458221436f,-0.2538217306137085f,-0.18129980564117432f,0.027059104293584824f,-0.0362752340734005f,-0.1883907914161682f,-0.05642790347337723f,-0.10682094842195511f,-0.14541885256767273f,0.058149028569459915f,-0.056168198585510254f,-0.17261208593845367f,-0.044885341078042984f,-0.3057560920715332f,-0.03036990389227867f,0.08994525671005249f,-0.18893685936927795f,-0.18001599609851837f,-0.09937700629234314f,-0.22721391916275024f,-0.16663937270641327f,-0.21402467787265778f,-0.44407933950424194f,-0.09316111356019974f,-0.1351679414510727f,-0.41227787733078003f,-0.2922667860984802f,-0.6317692399024963f,-0.47348713874816895f,0.0037505014333873987f,0.009658326394855976f,0.0169973224401474f,-0.04913963004946709f,-0.22816474735736847f,-0.04904516041278839f,-0.037249572575092316f,0.04058486223220825f,-0.041409239172935486f,-0.1849852353334427f,-0.01359318383038044f,-0.17132717370986938f,-0.006878809537738562f,-0.004311960656195879f,0.019431771710515022f,0.32015299797058105f,0.48290738463401794f,0.16918238997459412f,-0.09875571727752686f,0.07966755330562592f,-0.10542620718479156f,-0.14632613956928253f,0.06593414396047592f,0.11623147875070572f,-0.01603369414806366f,0.14434097707271576f,0.08583319187164307f,-0.03318917378783226f,0.0390964038670063f,-0.029986539855599403f,0.10543432831764221f,-0.3885704278945923f,0.1055312231183052f,-0.09311361610889435f,-1.094781517982483f,-0.09482909739017487f,0.06658019870519638f,0.6167938113212585f,0.06979474425315857f,0.03163642808794975f,-0.017234494909644127f,0.028792059049010277f,0.031879108399152756f,-0.04101637378334999f,0.030218569561839104f,0.12969517707824707f,0.028141995891928673f,0.3520581126213074f,0.2808626890182495f,0.15825402736663818f,0.14169305562973022f,0.2651832699775696f,0.3231181502342224f,0.15489473938941956f,0.5008839964866638f,0.2150622308254242f,0.40110358595848083f,0.3626173734664917f,0.09085964411497116f,0.21752065420150757f,0.34604692459106445f,0.14006450772285461f,0.12141270935535431f,-0.13849617540836334f,0.22909072041511536f,-0.13861095905303955f,0.030397674068808556f,0.3805490732192993f,0.027954138815402985f,-0.14427104592323303f,0.17021161317825317f,-0.16119161248207092f};

float jnd4_27_padding_conv2_bias[4] ={-0.1515597403049469f,-0.21171395480632782f,0.551835298538208f,-0.1377274990081787f};

float jnd4_27_padding_conv3_weight[36] ={0.23566170036792755f,0.44469329714775085f,-0.20525981485843658f,0.07576432079076767f,0.26400241255760193f,-0.036232609301805496f,-0.08196999877691269f,-0.08301765471696854f,-0.113648422062397f,0.003544924082234502f,-0.04695849493145943f,0.09665321558713913f,0.23639865219593048f,0.25002041459083557f,0.4845280349254608f,0.06685544550418854f,0.3077768385410309f,0.18956969678401947f,-0.049477215856313705f,-0.41807040572166443f,-0.0505712628364563f,0.03433716669678688f,-0.15377818048000336f,0.0342833437025547f,-0.013904763385653496f,0.0169360414147377f,-0.013563643209636211f,-0.007283952087163925f,0.0026743521448224783f,-0.008234553970396519f,0.020316263660788536f,0.32820600271224976f,0.019456833600997925f,-0.04717492312192917f,0.1360720545053482f,-0.047193437814712524f};

float jnd4_27_padding_conv3_bias[1] ={0.41261130571365356f};

float jnd4_32_padding_conv1_weight[36] ={0.05321858450770378f,-0.06358339637517929f,0.05457260459661484f,-0.099699966609478f,0.40432146191596985f,-0.09693405777215958f,0.06674189865589142f,0.9671809077262878f,0.06710595637559891f,-0.4495079815387726f,0.020019331946969032f,-0.3362292945384979f,-0.09459134191274643f,0.07548541575670242f,-0.27223747968673706f,-0.34635546803474426f,-0.21561512351036072f,-0.2684616148471832f,-0.22137093544006348f,-0.0972217321395874f,-0.054863762110471725f,-0.11414649337530136f,0.25020715594291687f,-0.23844289779663086f,-0.139423668384552f,0.04712726175785065f,-0.2609650790691376f,-0.02539324387907982f,-0.16303302347660065f,-0.03668306767940521f,0.06410243362188339f,0.08837760984897614f,-0.19686108827590942f,-0.33053475618362427f,-0.3163110315799713f,0.05426616966724396f};

float jnd4_32_padding_conv1_bias[4] ={-0.10407091677188873f,-0.20381222665309906f,-0.08743617683649063f,-0.0822039321064949f};

float jnd4_32_padding_conv2_weight[144] ={-0.007284513209015131f,-0.16330237686634064f,-0.12581516802310944f,-0.08495151996612549f,-0.06230095401406288f,-0.04121851176023483f,-0.15428274869918823f,-0.15337271988391876f,-0.033863332122564316f,-0.12858735024929047f,0.11079822480678558f,-0.06664632260799408f,0.047513026744127274f,-0.10600771754980087f,-0.07202810794115067f,-0.09065177291631699f,0.09381063282489777f,-0.005786892957985401f,0.12612485885620117f,0.07127662748098373f,-0.08563553541898727f,0.12359406054019928f,-0.031422052532434464f,0.12331506609916687f,0.08687333762645721f,-0.05663393437862396f,-0.025240760296583176f,-0.10617417097091675f,-0.04412001371383667f,-0.12607978284358978f,0.10370348393917084f,0.10345341265201569f,0.13203145563602448f,0.01742444932460785f,0.0830991268157959f,0.10740925371646881f,0.032865334302186966f,0.6930205821990967f,0.032716039568185806f,-0.0715106800198555f,0.2887149155139923f,-0.07264827936887741f,0.03725167736411095f,-0.045383233577013016f,0.038546156138181686f,-0.16938689351081848f,-0.10125904530286789f,-0.09844908118247986f,-0.20306238532066345f,0.1626037359237671f,-0.185912624001503f,-0.17446576058864594f,0.06527815759181976f,-0.27690622210502625f,-0.15160532295703888f,0.3569752871990204f,-0.044584356248378754f,-0.1611798256635666f,0.37285035848617554f,-0.02940094657242298f,-0.1399267315864563f,-0.14919452369213104f,-0.13398592174053192f,0.08800876885652542f,-0.06497591733932495f,-0.16298453509807587f,0.06704897433519363f,0.014478608965873718f,-0.12140224874019623f,-0.04235325753688812f,-0.0038346201181411743f,2.4616718292236328e-05f,-0.22092053294181824f,-0.20333021879196167f,-0.19986993074417114f,-0.426638126373291f,-0.18019789457321167f,-0.36442020535469055f,-0.3115946650505066f,-0.32873648405075073f,-0.4478023648262024f,-0.08412402123212814f,0.027339469641447067f,0.0963553786277771f,-0.03641016036272049f,-0.13250181078910828f,-0.18306037783622742f,-0.21768710017204285f,0.05458545684814453f,-0.07001233845949173f,0.0016816600691527128f,-0.2060302495956421f,-0.11415496468544006f,-0.0643409937620163f,-0.042503707110881805f,0.06736709177494049f,-0.0843021422624588f,-0.21985334157943726f,-0.00858653336763382f,-0.14771518111228943f,0.06811682879924774f,0.038342639803886414f,-0.07536029815673828f,-0.018986821174621582f,-0.12130451202392578f,-0.08467064797878265f,-0.15899866819381714f,0.12387962639331818f,-0.16220152378082275f,-0.17385664582252502f,-0.08588236570358276f,-0.07554462552070618f,-0.14198529720306396f,-0.18406373262405396f,-0.2057744264602661f,-0.1898488849401474f,-0.22621257603168488f,-0.16868960857391357f,0.025836220011115074f,-0.027933748438954353f,-0.1926974505186081f,-0.04115169867873192f,0.07394824922084808f,0.04511471092700958f,-0.1176501139998436f,0.07407242804765701f,-0.13102130591869354f,-0.148715540766716f,-0.11996389925479889f,-0.11534132808446884f,-0.1684967428445816f,-0.1263277232646942f,-0.022972607985138893f,-0.03186861053109169f,-0.16471239924430847f,0.15533293783664703f,-0.1567196547985077f,-0.050737857818603516f,0.028759047389030457f,0.017329618334770203f,-0.1042976975440979f,0.14748872816562653f,0.0020146965980529785f,0.10740925371646881f};

float jnd4_32_padding_conv2_bias[4] ={-0.12593448162078857f,-0.0006912923417985439f,-0.36347195506095886f,-0.013845291920006275f};

float jnd4_32_padding_conv3_weight[36] ={0.00039686719537712634f,0.12113600969314575f,0.04877976328134537f,0.05614575371146202f,-0.12018602341413498f,-0.04273480921983719f,-0.040614694356918335f,-0.12032907456159592f,-0.1110459491610527f,-0.08729491382837296f,0.0648871585726738f,-0.08922716230154037f,0.2363421469926834f,0.5347359776496887f,0.23711495101451874f,-0.08902611583471298f,0.06458666920661926f,-0.08964140713214874f,-0.19053056836128235f,-0.3583924472332001f,-0.3843423128128052f,-0.20478303730487823f,-0.21937686204910278f,-0.2485833615064621f,-0.21137773990631104f,-0.2971159517765045f,-0.302430659532547f,-0.054757971316576004f,0.22244249284267426f,-0.017993003129959106f,0.02492492087185383f,-0.04651458188891411f,0.04252248629927635f,0.034763187170028687f,0.04613868519663811f,0.20828381180763245f};

float jnd4_32_padding_conv3_bias[1] ={0.07635597139596939f};

float jnd4_37_padding_conv1_weight[36] ={-0.02126266621053219f,-0.05205846577882767f,-0.26124659180641174f,-0.17447727918624878f,-0.04684654623270035f,-0.12088709324598312f,-0.3217637538909912f,0.07069054245948792f,-0.02382235787808895f,-0.05001911520957947f,0.15850171446800232f,-0.2928485572338104f,-0.19741007685661316f,-0.3176453709602356f,0.06231305003166199f,-0.2299668788909912f,-0.16165117919445038f,-0.2368706911802292f,0.026448603719472885f,-0.07887797802686691f,0.06297779083251953f,1.0023272037506104f,0.34378761053085327f,-0.08654796332120895f,0.035488177090883255f,-0.07471548020839691f,0.062373705208301544f,-0.3956284821033478f,0.02416399121284485f,0.027696192264556885f,0.10665778070688248f,0.12264449894428253f,-0.3493134677410126f,-0.14728884398937225f,0.03981444984674454f,-0.16905073821544647f};

float jnd4_37_padding_conv1_bias[4] ={-0.004231905099004507f,-0.10876123607158661f,-0.07558886706829071f,-0.06395968794822693f};

float jnd4_37_padding_conv2_weight[144] ={0.5140751004219055f,-0.5297290682792664f,0.0018447809852659702f,0.4213697016239166f,-0.39708033204078674f,-0.0035120914690196514f,-0.22980500757694244f,0.28891366720199585f,0.0700855702161789f,-0.1063678115606308f,0.015584930777549744f,-0.043740175664424896f,-0.04724451154470444f,0.04433046281337738f,0.13852225244045258f,-0.07305489480495453f,-0.1378825604915619f,0.03223569691181183f,-0.07900086045265198f,0.27036330103874207f,-0.09399817883968353f,0.06845001131296158f,0.6631295680999756f,0.026623427867889404f,-0.08111441135406494f,0.2704358994960785f,-0.09463363140821457f,-0.05204768106341362f,-0.00976275559514761f,-0.01908322237432003f,-0.03321073204278946f,0.17730504274368286f,0.044199131429195404f,-0.05108299478888512f,0.2591022849082947f,0.19363847374916077f,-0.21616420149803162f,-0.3341748118400574f,-0.29525694251060486f,-0.23038607835769653f,-0.11796221882104874f,-0.3584158420562744f,-0.23364363610744476f,-0.15865565836429596f,-0.30893760919570923f,-0.06536179780960083f,0.018520697951316833f,-0.09058666229248047f,0.09023405611515045f,-0.056171879172325134f,-0.1425192654132843f,-0.05808679759502411f,-0.11265027523040771f,0.007240697741508484f,-0.18201078474521637f,-0.3779144883155823f,-0.08454493433237076f,-0.38019612431526184f,-0.3535594344139099f,-0.10830797255039215f,-0.2568666636943817f,-0.25678813457489014f,-0.3381676971912384f,-0.0613253116607666f,-0.09296580404043198f,0.040523722767829895f,0.1487572342157364f,-0.12065067142248154f,0.12047462165355682f,0.10242553055286407f,-0.06185188144445419f,0.06895911693572998f,-0.2592676877975464f,-0.31224358081817627f,-0.08204790949821472f,-0.35183361172676086f,-0.21625173091888428f,-0.2335478812456131f,-0.2977818548679352f,-0.22870264947414398f,-0.1821627914905548f,-0.06421433389186859f,0.07128113508224487f,0.11621768772602081f,-0.028441593050956726f,-0.1239500492811203f,0.04875051975250244f,0.0473179817199707f,-0.08240457624197006f,0.020018532872200012f,-0.05951379984617233f,-0.012288509868085384f,-0.12761344015598297f,-0.2142517864704132f,-0.25142496824264526f,-0.17108631134033203f,-0.24024707078933716f,-0.15387865900993347f,0.021844640374183655f,0.0571921244263649f,-0.09334349632263184f,-0.18566854298114777f,-0.1401273012161255f,0.04708223417401314f,0.03123115748167038f,-0.056412696838378906f,-0.23200452327728271f,-0.16099892556667328f,-0.23263242840766907f,-0.45938441157341003f,-0.31582513451576233f,-0.22806546092033386f,-0.4706881642341614f,-0.36057546734809875f,-0.2203160524368286f,-0.1967734396457672f,-0.309440553188324f,-0.09676717221736908f,-0.12253650277853012f,0.15810628235340118f,-0.11958317458629608f,-0.09965704381465912f,-0.1371932327747345f,-0.15165171027183533f,-0.1454269140958786f,-0.0753972977399826f,-0.3404448628425598f,-0.5543813109397888f,-0.21869339048862457f,-0.31395256519317627f,-0.5498532056808472f,-0.2702854573726654f,-0.49741366505622864f,-0.24981804192066193f,-0.29200875759124756f,-0.09116847068071365f,0.02032327651977539f,-0.1505977362394333f,-0.1553759127855301f,-0.12308582663536072f,-0.1976301074028015f,0.08649255335330963f,0.011582758277654648f,0.19363847374916077f};

float jnd4_37_padding_conv2_bias[4] ={0.0004495217290241271f,-0.34136173129081726f,-0.2868894636631012f,-0.3707200288772583f};

float jnd4_37_padding_conv3_weight[36] ={0.04329323768615723f,-0.06575170904397964f,-0.033517107367515564f,-0.07379510253667831f,0.2159850299358368f,0.7805690169334412f,0.043732352554798126f,-0.065818190574646f,-0.03971991688013077f,0.14518915116786957f,0.4289543032646179f,0.19203032553195953f,0.3755842447280884f,0.27327919006347656f,0.1483408808708191f,0.14808644354343414f,0.26766437292099f,0.37327075004577637f,0.08789630234241486f,0.00831377413123846f,-0.05133957043290138f,0.03404629975557327f,-0.0849233865737915f,-0.059979651123285294f,0.08235834538936615f,0.1304531991481781f,-0.02716333605349064f,-0.2999129593372345f,-0.19690631330013275f,-0.21464888751506805f,-0.39886167645454407f,-0.21629835665225983f,-0.37278681993484497f,-0.10330372303724289f,-0.3805583715438843f,-0.2629769444465637f};

float jnd4_37_padding_conv3_bias[1] ={0.05922240763902664f};

